FANN_FLO_2.1
num_layers=4
learning_rate=0.700000
connection_rate=1.000000
network_type=0
learning_momentum=0.000000
training_algorithm=2
train_error_function=1
train_stop_function=0
cascade_output_change_fraction=0.010000
quickprop_decay=-0.000100
quickprop_mu=1.750000
rprop_increase_factor=1.200000
rprop_decrease_factor=0.500000
rprop_delta_min=0.000000
rprop_delta_max=50.000000
rprop_delta_zero=0.100000
cascade_output_stagnation_epochs=12
cascade_candidate_change_fraction=0.010000
cascade_candidate_stagnation_epochs=12
cascade_max_out_epochs=150
cascade_min_out_epochs=50
cascade_max_cand_epochs=150
cascade_min_cand_epochs=50
cascade_num_candidate_groups=2
bit_fail_limit=3.49999999999999977796e-01
cascade_candidate_limit=1.00000000000000000000e+03
cascade_weight_multiplier=4.00000000000000022204e-01
cascade_activation_functions_count=10
cascade_activation_functions=3 5 7 8 10 11 14 15 16 17 
cascade_activation_steepnesses_count=4
cascade_activation_steepnesses=2.50000000000000000000e-01 5.00000000000000000000e-01 7.50000000000000000000e-01 1.00000000000000000000e+00 
layer_sizes=3 6 6 2 
scale_included=0
neurons (num_inputs, activation_function, activation_steepness)=(0, 0, 0.00000000000000000000e+00) (0, 0, 0.00000000000000000000e+00) (0, 0, 0.00000000000000000000e+00) (3, 4, 5.00000000000000000000e-01) (3, 4, 5.00000000000000000000e-01) (3, 4, 5.00000000000000000000e-01) (3, 4, 5.00000000000000000000e-01) (3, 4, 5.00000000000000000000e-01) (0, 0, 0.00000000000000000000e+00) (6, 4, 5.00000000000000000000e-01) (6, 4, 5.00000000000000000000e-01) (6, 4, 5.00000000000000000000e-01) (6, 4, 5.00000000000000000000e-01) (6, 4, 5.00000000000000000000e-01) (0, 0, 0.00000000000000000000e+00) (6, 4, 5.00000000000000000000e-01) (0, 0, 0.00000000000000000000e+00) 
connections (connected_to_neuron, weight)=(0, 1.45827883780002665048e-01) (1, -1.21019409894943308359e-01) (2, 1.67175838649272989755e-01) (0, 2.05409655272960733896e-01) (1, -1.48741142749786448007e-01) (2, 1.90909335315227579599e-01) (0, 8.86678043007851357515e-02) (1, -1.22679168283939432627e-01) (2, 5.98492603003979439791e-02) (0, 2.75111961364746804293e-02) (1, -2.46926936507225747164e-02) (2, 1.57720977365970682627e-01) (0, 6.72601181268692727144e-02) (1, -3.90656086802483315523e-02) (2, 6.13071638345719094332e-02) (3, -1.66618449538946222788e-01) (4, -2.08169842064380716806e-01) (5, -1.89664633870124887949e-01) (6, 2.54429596662522072847e-02) (7, 3.11500746011734719332e-02) (8, -9.77712514996529336031e-02) (3, -2.69080492854119057711e-02) (4, -1.52179056704044413095e-01) (5, -5.87883087992668862398e-02) (6, 4.53691351413727517183e-02) (7, 7.53989647328854317720e-02) (8, -2.02947864234447550302e-01) (3, 1.44178310334682535654e-01) (4, 3.79698070883751626070e-02) (5, 1.81675756275653910166e-01) (6, 6.80740121006966347750e-02) (7, 1.63797685801982950693e-01) (8, 8.06563626229763741549e-02) (3, 2.15249845683574747568e-01) (4, 1.49207318127155375009e-01) (5, 1.51915216743946146494e-01) (6, 1.86159172952175211435e-01) (7, 2.17875132262706827646e-01) (8, 4.92360609769821877535e-02) (3, -2.13991591632366251474e-01) (4, -2.14613707661628794199e-01) (5, -1.95456640720367502695e-01) (6, 1.63729393780231546884e-01) (7, 7.26464222371578927095e-02) (8, -2.14522251784801554209e-01) (9, -3.49634531140328164156e-02) (10, -1.13972032368183207041e-01) (11, -2.02692078351974558359e-01) (12, -2.04628089368343424326e-01) (13, -1.08529077768325876718e-01) (14, -1.91542008817195963388e-01) 
